#pragma once

float bias = 4.04467475;
float weights[3780] = {-0.0757598413017509, -0.09100433806009652, 0.04826249787716577, 0.01835523847476106, -0.0025258619271385178, 0.00013363563642126465, -0.0812048352422728, -0.09389401791378442, 0.04945929922408863, 0.09531727370329166, -0.02327055156832212, -0.006919255923220717, 0.06379385399168397, -0.12004009036275023, 0.02822581913093974, 0.026928893501119322, 0.02145764869690664, 0.10814729626441344, -0.009333210394323527, 0.05993669257728324, 0.006164775160386234, -0.09778551563957293, -0.04942962463923301, 0.02645197647006942, 0.0035413881135474717, 0.017226176683917717, 0.08846730100548751, 0.03787286528419019, 0.10881524783405089, -0.04354191125076863, -0.1193183363715184, -0.09452167057798193, 0.1355546623573358, 0.15534943243180513, 0.21837088060605594, 0.14510286794720578, 0.07131654217328429, -0.04080186460844257, -0.10205018684735742, 0.04583445545946539, -0.04160194099717382, -0.14351017320853035, -0.07100164504784201, -0.10893907644960986, 0.053402564523861426, -0.16060382163481732, -0.09897840604324946, 0.045356665438169796, -0.07135803100727424, 0.09896381950048493, -0.06912078050653657, -0.13229734736035229, -0.08700299911633569, -0.043622605499076456, 0.03992577124432996, 0.04823241077700759, 0.013281635820410764, -0.06708891895412146, 0.10553264560592072, -0.04055595364198969, 0.06611427102751855, 0.10274883010105045, 0.038927924667975684, -0.06679181599732756, -0.03337669097415633, 0.08313915867828531, -0.03527713193813999, 0.16398535971550562, 0.1095084208641659, 0.010423847375836669, -0.037056599008255864, 0.018790853517294707, -0.11986410232355506, -0.10643296218475169, 0.08404434042449373, 0.09412435360741317, 0.11799859951422173, 0.02209570887284887, -0.11155832084005284, -0.05896154341720321, -0.07922667073188996, -0.025704866535725103, -0.06464967807574806, 0.013756924442945493, 0.11390789843921384, 0.18166163632059523, 0.017449130525013807, -0.18345226584332117, -0.2171608493559616, -0.09342419060692124, 0.014987870118571662, 0.0922980907096286, 0.28260139769518333, 0.1387101276405421, 0.03736794924305267, 0.14716715516485876, 0.08193047333933032, -0.01671598844289528, 0.008200436956999931, 0.03623219603175315, 0.21348966969096925, 0.2687301954828531, 0.14605624770947126, -0.029699373546429018, -0.08792310511511447, -0.04783735551219401, 0.008895173596741626, -0.032913677426441836, 0.0014120158316922255, -0.01815672248638717, -0.1400815875365621, 0.14955583489169177, 0.08703317628856935, -0.027481148306545633, -0.18833631004243137, -0.08627604427523128, -0.12846397844118057, 0.05647294190390325, -0.08387993538412292, -0.18020346596639858, 0.03287454547226122, -0.015350295500854287, 0.1096684844307804, -0.17484669658597615, -0.015234669631124827, -0.010379963354120567, 0.09154689542208802, 0.09379545637433803, 0.0835249663875714, 0.1020758279157537, -0.030557788516355964, 0.0019764697729100457, -0.14137214780772592, -0.005118153116869301, -0.03665170395948337, 0.1818316410140025, 0.021859599066349107, -0.07319295910262469, 0.040239359598545466, -0.07845291429303244, 0.12204077799483869, -0.14442051684626314, 0.004338048828307916, 0.10447799816773964, 0.0651299565882732, -0.06810066171549417, -0.11503031817358411, -0.0030643860425307737, 0.06507289281669135, 0.11764212474497857, -0.08575753072382954, -0.006843582535185372, 0.09232623063131307, 0.08595572678964535, 0.06124833504397781, -0.14319523124427025, 0.04764658624526803, 0.18985597552215103, -0.07407515420975799, -0.14968179840411028, 0.02713073349328374, 0.12523678281455022, 0.1135827307730826, -0.07369837620049459, -0.21464090164124716, -0.017225013275596036, 0.015031812074898942, 0.12428058100968438, -0.11654408952103074, -0.06719402900114883, -0.011258803486872904, 0.04680400136335121, 0.04013166275493676, -0.07140346166884974, 0.15073124669511, 0.1611809354784206, -0.12100953645033714, -0.16588455115773185, -0.05615103230552032, 0.061400744732794686, 0.16356320911049257, 0.04128540118676042, -0.05250494262231956, 0.16555625107790659, 0.05144644252650266, 0.0016276654844539088, -0.0789255999430253, 0.0033152718283433994, 0.15239539635326246, 0.01586505474969064, 0.04178055447854159, -0.14325194692102675, 0.11136321149237174, 0.013892244610320518, -0.013305305198146624, -0.2296669986534129, -0.2740392004749313, -0.11077465724286167, 0.1398074543749983, 0.07801600866220668, 0.14501391408596945, 0.2551879542595622, 0.1014702572616722, -0.08943563131396037, -0.08407372689070514, -0.10023137998097967, 0.15398461020203574, 0.09176428943422404, 0.09853057910809486, 0.01903650256566788, 0.09830025828287942, -0.03648282019781196, 0.0731329390335244, 0.030350770352101628, -0.16136883035265412, 0.07820175289155942, 0.15604535978323, 0.12596353372913383, -0.09603623336773424, 0.12008750752594563, 0.20206348024617193, 0.02171480479180314, -0.2686234289073855, -0.3033097857783362, 0.04837313539786952, 0.11561043855987466, 0.0903215147432721, -0.07624422274138429, 0.16316277714214825, 0.15541913403376642, -0.1032780518285633, -0.11218806958320193, -0.09549821788597146, -0.029155816793140006, 0.041342174758110216, 0.061354350108778405, -0.019332247440601125, -0.03406036258218573, 0.028882633600782907, 0.046463630487618805, -0.11883920528723613, -0.07814766881376826, 0.06001215074684697, 0.013337087267037726, 0.008513889339650438, -0.042474804792053365, 0.13316320505219242, -0.030899858320351758, 0.006819728650035366, -0.20624094282715316, -0.0731588746859069, 0.09601209028788733, 0.10281509523229936, 0.11077174983829786, -0.08176125072855682, 0.3734223756369768, 0.06612070050185523, -0.035240503565449714, 0.0006007369787576601, 0.010174994768510387, -0.046028286350272785, -0.13037192170859457, 0.011671586285701026, -0.16308667845474326, 0.053414499888691354, 0.001071904437653831, -0.04830211479002188, -0.08148571015983361, 0.001023555991563474, -0.14687218552287273, 0.11617515662309792, 0.06889147147854928, -0.12955950198299251, 0.2237933815496429, -0.01508988648391326, -0.0028134736750861887, -0.10969588651943504, 0.004687355765870604, 0.044623852449616384, 0.08322219942736567, 0.07154577290938433, -0.12665490988319814, 0.055476323251372646, -0.02032318200719698, 0.0253801197509137, -0.02878987675560291, 0.08468481466593784, 0.006902411373629102, -0.02066131504649383, 0.08643106055877911, -0.09408935473383476, 0.06446558717700697, -0.05572087277764423, 0.09243843497877427, -0.1290990850617726, 0.04337617715228447, 0.04571862828208575, -0.10288931319679608, -0.02554058700995372, -0.2613922552165943, -0.03769941734880725, -0.11637823595601836, -0.06398804619180244, -0.24405456022023925, -0.07634962063801051, -0.0614720981532862, -0.07868898535357736, 0.08238498855417137, 0.06508565849569366, 0.18887276437234723, 0.16046743968291308, 0.22864630349657808, 0.06195018366915698, 0.17424246453400788, -0.08365041256073616, -0.1390798876754012, 0.031144253079297378, -0.01608100497751151, 0.01094369018360053, -0.04046782600517538, -0.20315444609758085, 0.021349428727909604, 0.07831725894170383, -0.19039046562342735, -0.05353137292893134, 0.07025179597599723, -0.08975226721651879, 0.2198387537746252, 0.09991433064759495, -0.03682836234236856, -0.18407568405499208, -0.07484004661236382, 0.013348614448158668, 0.032691104488060826, 0.05320572369802387, -0.06972439157468738, -0.0705662914175251, -0.13183257489771766, -0.07939417864360221, -0.11595188810231612, -0.13837268580032244, -0.0018937028330197024, -0.03322893172311501, 0.069789008080522, -0.03331437145818406, 0.13411813038698153, 0.1271647108140277, -0.0012541941648842449, -0.020806588679684566, 0.11685788017787725, -0.0033966951383431927, -0.05554854772855109, 0.050690689420875096, -0.04108782215827656, 0.0009711953170411941, -0.1497377162782339, -0.0482517698431474, -0.07340815696249191, 0.03955908723706956, 0.05650464358375471, 0.09414754721268696, 0.11919318443361081, -0.12721392713906407, -0.004368953238879702, 0.03828380295087575, -0.09752055101337653, -0.18007979394236495, -0.083117698382182, 0.11133897890859198, -0.053521934433157475, -0.0029419763542123025, -0.053872830212525605, 0.07193623748498197, 0.10033082429593286, -0.1653113173716331, -0.1792872424818526, -0.026715940261235673, 0.009919443566880196, 0.042210238647063504, 0.13672574514193647, 0.00202190449617988, 0.03332645583392994, 0.014511910105235545, -0.14185162762595907, -0.11515100660094446, -0.05703362430621779, -0.0063902333920587626, -0.015039627868088238, 0.055065263996865246, -0.0200645820110805, 0.013796897729031775, -0.10631410793831376, -0.08481926408208958, -0.07969850632958218, -0.07521075525461546, -0.0849039388014079, 0.05685386959408658, -0.08124050668620385, 0.06432651485323106, 0.09661605074568091, 0.19302428062178034, -0.03320044785099631, -0.1246060481141569, -0.004580404024150595, 0.13065150197503372, -0.04611462862987221, -0.2749836374164229, -0.09098311733386397, -0.1492389618092963, 0.02171917046889568, 0.0474086285827411, -0.20531145802135875, -0.09738898945145362, -0.0071769571121031595, -0.1416839223588967, 0.010508481034138904, 0.06473439585228831, 0.02166218328189158, -0.01442082978319012, -0.046295236638508416, -0.047321015629239474, -0.06465848325318962, -0.03041218030133564, -0.14028831976914752, -0.1058623102879715, -0.039130544001714174, -0.18602326774245653, -0.17017983670600234, -0.05940856999938994, 0.0648756990658113, -0.0351160099844531, -0.03535434593877426, -0.007376461508305867, -0.1458162800277375, 0.0659922253510421, 0.006185314230704418, 0.04151099634562269, 0.06111857128475645, -0.2090797746342359, -0.10956487028483947, -0.01336615047821478, 0.05921142593528034, 0.01216170616798916, 0.019503790776188586, -0.11088651536674222, 0.006765410372803584, -0.020546628963580178, -0.13313546649231375, -0.1684810441364153, -0.055665316490002045, -0.02120230135922098, -0.03190618152689984, 0.07200932515586866, -0.16476590500993035, -0.034615642915755564, -0.10836366963623983, 0.0076743302744101405, -0.09591454118786384, -0.12190139149527517, -0.11395279851143661, 0.08620348955058836, 0.07319417425120621, -0.041781628922302014, 0.0009641672420167826, -0.17530449289325, 0.0031056190574915788, -0.09688406087875338, -0.08343008256955536, -0.06577635645562269, -0.026124906962619834, -0.13921211157365937, -0.23843632049656374, -0.07179166659580219, 0.027089304082201938, 0.06572355550589515, -0.06629031973723341, -0.0941759636252707, -0.017305533677276167, -0.050864616928563616, -0.15220664404283785, -0.03745720394905399, 0.011770377658028115, -0.08728127698312141, 0.04808396491656498, -0.004360232817089853, -0.07761850478552185, -0.03617156947124228, 0.02831004730850461, -0.039253445577378934, -0.07440368901809799, -0.1189436698936732, -0.10503903031523355, 0.0941196507071806, 0.07702912181373597, -0.0239232025448898, 0.04424366138128229, 0.007978013288858523, -0.042363130930967476, -0.0010986164325190672, -0.046448428798894194, -0.11589593788709175, 0.11750633066200478, 0.1151187203883001, -0.08371634687864778, -0.031536566387435086, -0.10244622850370949, -0.13495930106691062, 0.11774324300435715, 0.11624610811127042, 0.21740988671725922, 0.025785808673146535, -0.0019533939347152213, -0.053409858199358284, -0.10261285339558543, 0.057197881061755385, -0.05682324502754964, 0.050999174046003855, 0.21385324020998042, 0.08604159681914851, -0.04275772985254009, -0.08341674566279653, -0.08526481238572928, -0.029049014274349305, -0.0433590317002509, -0.007554363428216945, 0.10349328868240207, 0.04781208786115152, 0.14198322487249423, 0.0691906149228789, 0.0392096865908691, -0.09499187093636172, -0.15564329077050773, -0.059351537191658636, -0.04586817413462116, 0.21493344850579585, 0.14214254493126366, 0.014949927160176853, 0.03592734782676101, -0.17795112333483643, -0.22043506292245207, -0.05727627619732559, 0.04359852995247709, 0.05352244401782003, -0.02780179752110599, -0.027833827001725646, -0.11390357984306164, -0.1296579675465065, -0.0703470217792042, 0.00015373305490381595, 0.0974657647166792, 0.09073387141270968, 0.028870298106570824, -0.02938007442378295, -0.15250735286723893, 0.041064562189304044, -0.05210851308961046, 0.05368559280459388, 0.0059574608506364896, -0.06902812379277753, 0.13923451030801098, 0.1299369266462867, 0.12286269861522653, 0.11138939106106024, 0.05622528603643043, -0.03376906717777755, 0.040398086315457826, 0.06836917208373867, 0.057221724210450645, 0.07319085622290969, 0.1320164604464275, -0.021459977907705444, -0.15569672156675707, 0.07504487091880056, -0.01816211184290764, 0.11569927898529968, 0.16301920531152364, 0.06782164090573502, -0.05740347262225793, -0.13633522676473186, -0.09455348346317437, 0.0168393784625481, 0.058436716358023305, 0.008577107312976841, 0.011833604305608415, -0.08534738661412632, -0.013129823006729024, 0.03483039358381758, -0.04133915964021479, -0.029020967746506067, 0.11120826265148676, 0.15194586857103734, -0.10431717617897472, -0.11709316337420606, -0.011486356663833087, 0.20028518396997888, -0.08962030818592859, -0.0990025863403335, -0.0713898910591504, -0.05907120270554421, 0.129401381916989, 0.016046902727621274, -0.0020683293570825426, 0.005092017482621072, 0.08051706947656562, -0.03376949497917975, -0.03483811959158614, 0.06024813214904854, 0.14396337266731518, 0.14144203411836204, 0.06372576139793211, -0.01744792044692616, 0.05209395424724247, -0.10611977638142855, 0.04453013900117597, 0.06900727611260425, 0.14573190513408726, 0.10201715546352756, 0.15721706628091342, 0.07544838134485171, 0.04578801599781792, -0.14072505330405027, -0.15570236177782093, 0.12111050039461214, 0.08433215040500275, -0.00357198195565257, 0.007049258109256765, -0.04600142437453888, -0.029461862231761, 0.03693031070951648, -0.13412405724647408, -0.07412255051673716, 0.09738944703630983, 0.1501770298660466, 0.30857320838979607, 0.17585305277457494, 0.06842288564196936, 0.015339277154715296, -0.013152478255361356, -0.10035269479170496, -0.010798485833752435, 0.22640384774994277, 0.12205124435520866, -0.09425773625144619, -0.07038105677711769, -0.114361730630609, -0.10242207259479669, 0.0030849537201202777, -0.1295707701671508, 0.07380056313947372, 0.18567633247125132, 0.017995536223311917, -0.018560703721973455, -0.0377185513514837, 0.08074827915466952, 0.037545121647090805, 0.03332879552496673, -0.03661580547760437, 0.1606390817968146, 0.1409967966494931, -0.10777152184241083, -0.08591368431165529, -0.10842734311496137, 0.012059386874161018, -0.08223424342226765, 0.043764224784551234, -0.041098821890182526, -0.0561353804408979, 0.10214582749790134, -0.014107167946314267, -0.054756421452131804, -0.05652151317705083, -0.02455752278244154, 0.03543398785559701, 0.056430803179423096, -0.21198668733696974, 0.08289867128354685, 0.14348712191002735, -0.01734180714799354, 0.012793232071219494, -0.08492849453504579, 0.0008996874282323603, -0.08657957716073555, -0.03085148560653382, -0.029081007026828795, 0.037535821972923995, 0.0017070307570673207, -0.07871723857006464, -0.04688183237064622, -0.12338614637489258, 0.07265766135440045, -0.05753027831006337, 0.04197144295036909, 0.058864809148108654, 0.04712601606841048, -0.13161919178962325, -0.12611542086222677, -0.05066576177224712, 0.1281330653071675, 0.08365666052579898, 0.0314149636707146, 0.020881257803643805, 0.051651431069326195, 0.1951026745866993, 0.10027576788740492, 0.0018437853373236867, 0.007629904910543963, -0.07064767439747668, 0.07782661816938756, -0.04133399892433876, 0.06632191935683956, 0.0619289316660698, 0.1206863994586492, 0.1971992194816369, 0.08981274413404419, 0.08835929932108136, -0.0031674872716235328, 0.1556756707585734, -0.07422297738859947, 0.044829091606826514, 0.028155701794691387, 0.15544817160213237, -0.06723631137083212, -0.05898904205657813, -0.03597339198985245, 0.06317417222595753, 0.00013379268070396518, -0.028364680731964444, -0.10514833440898619, 0.006944229589097876, 0.1731520130766093, 0.158624507542987, 0.04091946101677921, -0.030094168056723304, 0.034744892476991106, -0.09041674670847377, 0.03474895965227636, -0.08009688773897836, 0.07138341561201761, 0.09853887770259102, 0.1883282311914313, 0.13985931226742943, 0.04454982427918977, 0.04184163789454036, 0.007494180003330849, -0.14061455864941233, -0.13636969840555357, 0.02225376066161465, -0.04533688186536367, 0.11694618888528976, 0.02118279711812755, 0.014103448850849182, 0.08916661110799995, 0.10252660790822582, 0.0021425839127772956, -0.05623196016303849, -0.1258428416627429, 0.1501204416818426, 0.12128558548423084, 0.018232916810708807, -0.03863756103083904, 0.07630748757326467, 0.017075468693165372, -0.03229895342348341, -0.07966522187345373, 0.012458501709406957, 0.0386124901196224, 0.0630969337414427, -0.05980196205646772, 0.17040990828689734, 0.04177666942779627, 0.021385828071435943, -0.14363784931941037, -0.09025449893835388, 0.05359176311861802, 0.012573392971685301, 0.12426737195994295, -0.07268547764229769, -0.09961974878452635, 0.039964073457626106, 0.12268492905857277, -0.03342829670631397, -0.08176556093856954, -0.13434445709510034, -0.00852650632467522, 0.017619451995902306, -0.1384575483331389, 0.06297399131778482, -0.14747288643113493, -0.09459175548755089, -0.07475668318344328, 0.01832240995291647, -0.10658391403111264, 0.034582192112116425, 0.08368613830610915, -0.20540261748589217, 0.19770510875646252, -0.009009442067552833, 0.010689035951404082, -0.011332031768121692, 0.054109788589467085, 0.0402390301553848, 0.028213722074328786, 0.07491185235808125, -0.20245178099330108, -0.05211833745266913, -0.07104316944202416, -0.05396540120482546, -0.0408844413390968, 0.05235053173545183, -0.03154733441489727, -0.03743572177418642, 0.10647619770524203, -0.09369922939551524, 0.21289835860342735, -0.05274041204675204, -0.024353990728534614, 0.09098133845024481, 0.1586421725390958, -0.06103676745316204, -0.060290721662204325, 0.1892158830815392, 0.0077031534209848485, 0.08872661471600235, -0.20597517264829296, -0.06209806641235131, 0.017613235131013816, 0.11297163855716226, -0.08842256109570855, -0.04238927599882551, 0.05764934124484044, -0.05226174866969387, 0.10900936248927999, 0.14504742523090405, 0.16100901938412676, 0.011505795310749484, 0.08618370509999551, 0.002626640356346835, -0.22435834321575018, -0.16554621426040161, -0.1774193911135327, -0.08375107841030092, 0.006009724590385935, -0.13555598617354075, 0.022037918350886407, 0.071169074189749, -0.12218790803784164, 0.07978370102502721, 0.16996904212868322, -0.01845017416618853, 0.078236110589399, -0.058449571128310104, 0.14710276174743178, -0.047048861023715714, 0.018724626674861904, 0.006878265610270561, -0.1350292771688691, -0.23216040585960504, -0.24760037451844005, -0.16887245414116628, -0.1816294708638692, -0.04499279610834618, -0.021072138992390507, 0.11526911009440553, -0.17589071245950802, -0.07014767908733271, -0.03543879813022227, -0.04527093459546286, 0.08965434053856051, 0.1006673991390525, 0.08173976526381253, -0.014646314028619635, 0.06109684811105416, -0.03146434358303368, -0.01428766003677464, -0.0035381958532889526, -0.08534724641766, -0.16874448757227037, -0.10187848400765151, 0.0009784657281067374, -0.044953468846259136, 0.04778543696578046, 0.06179884654305953, 0.007947034185916513, 0.010287881892792073, -0.09216461720995747, 0.061694697390934715, -0.10967825769888201, 0.13907142635537356, -0.04719979519550238, 0.08298377902675909, -0.09064543617583465, 0.006729815733261619, -0.006727127692872682, -0.16279508843832335, -0.022594650625623467, 0.02646708085523099, 0.06141524764474849, -0.13136888066087501, -0.03465049786675376, 0.007634947643705401, 0.07713468875372083, 0.040481974848749096, 0.02927540784773975, -0.11805009777484331, 0.004805777797998518, -0.10690494986880494, -0.028054401690433425, -0.008011153062438034, 0.00874879382026551, -0.05430001088606739, -0.0001933501306474834, 0.027155576679161908, 0.009763498864578547, -0.028916153758650424, -0.01368433581958717, -0.010699788647750296, -0.11508542747292068, -0.14144702983837884, -0.06025369636736729, -0.05086991564230926, -0.1117941681559006, -0.04727004899796459, 0.06460949902454585, 0.006658837522007041, -0.06122306929206658, 0.015085253854441117, -0.005974508266610706, -0.18833276183667189, -0.04183653864255465, 0.04688109307298651, -0.003953606957956419, 0.0003415213652527005, 0.028532672439719926, 0.022996059578760747, -0.010004971536831534, -0.017834989060980015, -0.06371102812135927, -0.034366848775698504, -0.07445339783079241, 0.06455280405651351, 0.10075137398655205, 0.07731226893792191, -0.028491535812321837, 0.0004873396694592149, -0.04221511778884517, -0.009356703948165908, -0.11487818018728915, -0.08366864287431151, -0.17113803989748377, -0.19215881726528117, 0.0272967315595971, 0.0880754234574181, 0.08958018980411682, 0.0023107751384336753, -0.004238501732471771, -0.04646882428395208, -0.046875156278154625, 0.04710444705056472, -0.17799152943106117, 0.055458078277255365, 0.005072247181832677, -0.04581874619436778, -0.11831944943129713, 0.022684292524109983, 0.041746989456836, -0.03684738291613795, 0.01005286046733237, -0.1892896977383822, 0.04655755556057887, 0.013676826089903598, -0.023263992962857586, -0.07959422404915305, 0.08669472576740143, -0.01911259512338983, -0.05412904455544548, -0.16502244000522565, -0.18706204805387477, -0.07504303704783935, 0.007566768436479415, 0.017244601698524833, 0.036433297712947704, 0.03054405614691031, 0.08827570090623765, 0.03150605040056285, -0.05322584805164879, -0.13259257613379244, -0.09368179079145697, 0.01994101377069736, -0.01792980343226902, -0.07958035897872014, -0.03303161416552706, -0.03167054068322214, -0.02762090342708641, -0.024590602140480193, -0.04564575775665677, 0.04864744565044214, 0.03769574630198399, -0.09664985559099176, -0.12420366755099592, -0.006534541750262361, -0.05750739640616034, -0.0764874446758575, -0.06481452058041211, -0.0890743923685705, -0.02581957826126184, -0.03994426023900146, -0.07245908045738832, -0.10564778239113036, 0.058250455550304794, 0.09060479358897713, -0.0396607349950353, 0.013259521203258292, -0.09757675180934583, -0.11665194280568231, 0.07316152404285733, 0.051640951258517656, 0.060544030587715986, 0.1422647914509805, -0.0012244870586889229, -0.06792415589485587, 0.03763608319392823, 0.02665810959664429, -0.10396038983422222, 0.05198941164331459, 0.0981351573215897, 0.11265427142758505, 0.052685477224075336, 0.003893199007118019, -0.07313217169415012, -0.08249359078435901, -0.03701491712924035, 0.026039233326067994, 0.06118334642917422, -0.005308214559043642, 0.036587872165761794, 0.1278296473628106, -0.08095455542369072, -0.08576236795228094, -0.04483414676351842, -0.1688448770053479, -0.11596978381780274, 0.08863114810519733, 0.06964424496620816, 0.07713006355499895, 0.09214471226571579, 0.0113906819347274, -0.12078526119727047, 0.15196292048729226, -0.0007079465007498046, -0.04161618840076571, 0.10547523368172328, 0.07984743163810198, 0.10684983219774431, -0.004793834851949208, -0.059568859864095935, -0.06558859937734372, 0.272808907439672, 0.06131230597173644, 0.06450129333812635, 0.035618262899917805, -0.0020885808299472373, 0.0021039933840274593, 0.20302206079654828, -0.08324066506341733, -0.1550331845432892, 0.038024829922351164, -0.14321949638292233, -0.04644797248473972, 0.026311870127363017, 8.58531563092263e-06, 0.09932416464211655, 0.025414880166486905, -0.09903628979583434, -0.0019019966320742258, -0.021780624927720697, 0.02102555738547312, 0.055861319695181204, 0.056253826703717605, -0.06878178485349117, 0.0669029333113274, -0.07423759744049524, 0.050534529365157406, 0.044329740861446955, -0.053313793408656544, 0.19694362013768094, 0.09018855411473826, 0.029777864378024314, 0.04661573733886553, -0.018822078815947222, 0.12489426177471288, 0.10652562353074128, 0.07040337164665111, -0.024096049213275586, 0.058035892481616676, 0.1136907181108168, -0.039820744214434954, 0.01365573085538134, 0.10960981913752599, 0.1485765714790703, -0.0755028904734835, -0.06648553263644259, -0.16109972997188235, -0.04863148270345526, 0.042285874794738346, 0.03438178534618767, -0.042112756546477184, -0.017945956959267942, 0.1562647582085998, 0.2075648489795694, 0.09214173656240617, -0.010163176042176827, 0.010235666911613619, -0.05591755997191749, -0.0029945579578709307, -0.09392720928103004, 0.04755986317604167, 0.1288225377989671, -0.0904411882713571, -0.06538743468743062, -0.006504045900212023, -0.10043962939211341, 0.07549274161725787, -0.05928469196763845, -0.04572921696867439, 0.1428710981447351, 0.054146083016987846, -0.08916711134058548, -0.02453351600528564, 0.18166964068531535, 0.15106286962797388, 0.19160049380711328, 0.10281083369044933, 0.06516415756845116, 0.020471058296493764, 0.026558185899418923, 0.11828721787851601, -0.015486960665704222, -0.0352200703366454, -0.14610859821562233, -0.09928014254592257, -0.1522771225723009, -0.09308269423404365, -0.15180521292233884, -0.10990982321000614, -0.06194740416911983, -0.026103683915311753, 0.06991742853106908, 0.11698561907530296, 0.2115211303284749, 0.057309516274773535, 0.12488726099914228, -0.0314619955975081, -0.013321975567813268, 0.00043667576323172617, 0.09165213597413413, 0.3414101172647134, 0.08299419453549178, 0.13854111409519748, 0.06740167012287475, 0.06877321784921499, -0.03131888356433304, 0.04355517069687747, 0.08785083699962726, 0.0896967842718368, -0.1133637219969197, -0.15460735163784045, -0.21408937555442492, -0.13781104623110144, -0.11840997982666017, 0.001929608660328181, -0.057925665129692605, -0.13087631335644434, 0.027686811472180474, 0.19466474652040472, 0.028912202215601555, 0.2569817913421705, 0.11083785507617276, 0.1999762432030933, -0.009129517689609665, 0.011462751312663465, 0.06860714106106483, 0.18605658036575654, 0.07965118451281274, -0.05191146337180845, -0.1276953300016408, 0.02133277281813211, -0.02514798213826759, -0.03031358818103719, 0.01615877537341692, 0.04515939220622525, 0.00044771653677363825, 0.004925804305254483, -0.04302288777777328, 0.13618918638508543, 0.011569897077439448, -0.006987793951742861, -0.11087033551239195, 0.015587227104856594, 0.01337220732417353, -0.08856329013553174, -0.10933948136261552, -0.15679181198376158, 0.15227595840959654, -0.10723683017076499, -0.012284894389786383, -0.04412048045672657, 0.023702522307313467, 0.010641314140592571, 0.08891058561622334, 0.11958662905008609, -0.07173601401055807, 0.11815588838119807, 0.004280346995135374, -0.004452254631491151, -0.09243718283837109, -0.000278942423940224, 0.05328479157478382, -0.13389538913680296, -0.07018607937855822, 0.048513022882821506, 0.06409984528829606, -0.025237382170929277, 0.14755316657962228, 0.04070119290233381, 0.0687121071400331, 0.047620808924336344, -0.05732234209795655, -0.21538146093995675, -0.14914041988950952, 0.052688801855574716, -0.045199294952074566, 0.006859597022177382, 0.06722439471251616, 0.15075213615492306, 0.10544001679990916, 0.12575663299190093, 0.01975254697795039, 0.03781040116085369, 0.041080148308475464, -0.027255852890958512, -0.01235112515799788, -0.022757865769515488, 0.12664976535918465, 0.25099227004844377, 0.12791652648211083, -0.08381559527756756, -0.12250921186191047, 0.1441789024181627, 0.02096540056639016, 0.09766821165039932, 0.02576901503732003, 0.1777999737819695, 0.1756887777484744, 0.21257810037302718, 0.028210301081105765, 0.0012508222647351856, 0.15141530001342868, 0.0921049709654815, 0.08533723887889022, 0.18470257591147765, 0.00029086063090874483, 0.06571359018082622, 0.03351230788312253, 0.11048249340980301, 0.09361553347484891, 0.13680471389547672, -0.039556968127538984, -0.07260561776882286, 0.02374599713509012, -0.0739882828186691, 0.0738151307512967, -0.01080819382471274, 0.03143015556921692, 0.12193232676929819, 0.08735660847570326, -0.01765131369484064, -0.15553144453561574, -0.11231546686880568, 0.027208060733225774, -0.03580947750038549, 0.08329315660410898, -0.048092766068423144, -0.07673742759916449, -0.0367551193901896, 0.006384276514487385, -0.06032829504160027, 0.010499624387231676, -0.00652601360437114, 0.09606744811542765, 0.018418268749994804, -0.06678743972828642, 0.013546706240815916, -0.03306608225912083, -0.007550832188077363, -0.02683612348941343, -0.005863909705919693, 0.004560280532874645, 0.10359856013669892, -0.027429401155519468, -0.06446615110439713, 0.06096310104939926, 0.08811845279234648, -0.036376299616719836, -0.07930883444657508, -0.041877963064424505, -0.12646413933277564, 0.06040882702773225, 0.10618315576274912, -0.042013966091639036, -0.1816112216640285, -0.13604084984234394, -0.11590884362301437, 0.024610470952477117, -0.07743224052950007, 0.06137951136265016, 0.1444143986972261, -0.09482529738713419, 0.028496661763819216, 0.07436473718621338, 0.11562714343346278, 0.0763275990434875, -0.0018172437351321315, 0.05264175278756735, -0.0006773173112073571, -0.043866345999524325, -0.0241980186184965, 0.05632877025796897, 0.022178457626665624, -0.06401884953045076, 0.05001359524347816, 0.019771575779137872, -0.004953177889648792, -0.021317225653874686, 0.19236773383005584, 0.1124670184428842, 0.1927053603124996, 0.10390466135736552, 0.018038540271342343, 0.02656178886451588, 0.07175659825919695, -0.06195618229427801, 0.005917275305568714, 0.14571358993868866, -0.034569314416773425, 0.09685967520520752, -0.11797703800368509, -0.07729238775308278, -0.03308217341707386, -0.02379670841178895, -0.18123486279958895, 0.007367771869475358, 0.06065068525022908, 0.020995308239224474, 0.06235708820315677, 0.1749289186612854, 0.09488760318870258, -0.007764696417369746, -0.010304874381265514, -0.043918196264458996, -0.041617555687574616, -0.055025709101571126, -0.03701051583133953, -0.06293518596920306, 0.007488682226475785, -0.0898283251871626, -0.11038728341968577, -0.1281994805529145, -0.03674042834809912, 0.09510149417199268, 0.09149578428937558, -0.1022665508422187, 0.0013713318728130856, -0.09066673109475604, 0.10652286631512187, -0.007573704365564611, 0.05076759257638437, 0.046247941783941385, -0.05679234937357469, -0.1033153036665071, -0.22073525061616572, -0.11885887361637945, -0.08720113127748542, -0.07679386267072522, -0.1853535871074407, -0.05526681749167596, -0.08388832473963512, 0.29010026015245444, -0.018302965522486746, -0.13820475801527202, 0.10644670887279493, 0.02830311150639728, 0.061014522498987166, 0.031101776317258415, 0.11691223662805156, 0.11164736659120406, 0.02598230044269905, -0.015392153352081564, -0.16713787084245982, 0.014272732803106975, -0.004162631694453137, -0.03860890798605138, -0.11435349786683549, -0.057824093549189805, 0.09426805130452554, -0.012403093624305243, 0.02089481452416966, -0.16193966521342307, 0.21218762853462036, -0.1265510020778175, 0.04257520963107736, -0.16813701068662912, -0.01571290572039476, -0.0996422941991246, 0.061694305870773035, -0.04605683717132942, -0.16880147469187262, 0.079787194932532, -0.09206303823591434, -0.10531197886856765, -0.1779571684942066, -0.09669599265686982, -0.04283073321578884, -0.10211808830740457, -0.04756352666409016, -0.0774539161377934, 0.1973875608426205, 0.0008076938142688819, 0.10521736585411544, 0.009948680651573878, -0.0007683707602043498, -0.004274504685190504, -0.01968991591503874, -0.1311600364373871, -0.16979697965063925, 0.06391487586583139, -0.13637916355407445, -0.06099700207821585, 0.009572672960483567, 0.13226751975083487, 0.13239263559932204, -0.018227645244322497, 0.05961112328686311, 0.04330083935605769, 0.11960481771285797, -0.065876771036171, -0.08012385801062609, -0.22712731499318997, -0.062348003784594055, -0.03728078764384166, 0.11189738039586723, 0.019593575326826745, 0.07630614235005581, -0.029333415679309256, -0.03092635791968692, -0.0057793655485557805, -0.028488322456497146, -0.04640023841650809, 0.06865730724695267, 0.1453381464594932, 0.03509901908642883, 0.058189146269975935, 0.07533065028945912, -0.20504181019943366, -0.07510742189940557, -0.030706772824329737, 0.04838345041844586, 0.07419118599636054, 0.17295169683979325, 0.13702295873051995, 0.08421148319740145, -0.1156320670629776, 0.02448265393162016, -0.08735261613300756, 0.07315220151581082, -0.02169350862200025, 0.10656247700909725, 0.061179326514095286, -0.010697651178971932, -0.008350232469868239, -0.017639570189152534, -0.12140408372323504, 0.05985727371190175, 0.02587919295614073, 0.014415639979958057, 0.012207144957577569, -0.0016432731403091868, 0.07822755119301017, -0.022443634710468598, -0.07265792184106157, -0.20475758348456047, 0.10562731115744434, 0.06438102957905349, -0.03090467415836392, -0.10253129038628478, 0.0004989242919122738, 0.12719561743731708, 0.09872894160684739, -0.061465239226988336, -0.048658413639058845, 0.05786363317303227, 0.04115027310290391, 0.016749584191533495, -0.05243246363690755, -0.10037664330157835, 0.002001977445033088, -0.015527763468339818, -0.07206966596260654, -0.19221088235488387, 0.031837105432454285, 0.036112369047523685, 0.06061373475932456, -0.13838300147789345, 0.05155238612935892, 0.07206707681866203, -0.006926684612724461, -0.008105770969998089, -0.05587547334376885, 0.07543504999178913, 0.011190524136457275, -0.07436395256161867, -0.046356226402250664, 0.13794391681104975, 0.10214148258129782, -0.108240435449176, -0.06322659414474906, -0.19298718096012832, 0.01592622270478466, -0.06152028844784171, -0.06748310537531109, -0.08747513116803526, -0.05775194642752326, 0.023999381364815033, -0.027702832044819246, -0.02004655931000705, -0.18099507182824937, -0.011496865952622096, 0.07285845158071128, 0.02461878858164625, -0.019367406367112636, -0.006988136273546046, 0.10486011582321586, -0.11787115793840384, -0.12689631460572004, -0.12081479642040749, -0.1054010462169312, 0.04649058125834489, 0.1051598651345662, 0.011617738629886028, 0.12488335670054584, 0.16843651375073881, 0.05454188814025837, -0.02754347641507278, 0.010872274527430031, 0.003206657693987592, 0.03061025765385456, -0.05477000097166353, -0.04958866493629295, -0.0916705471283965, -0.024834316055991658, 0.008786786279265034, 0.02974169541654663, -0.0349176608816538, 0.03467256799627947, 0.06067831156592626, -0.10720572119289366, -0.1602936899298749, 0.03678087927147169, 0.1392412232604347, -0.060867215825537925, -0.13261767655902346, -0.025204970840474905, -0.13222310340312543, 0.0685919154767893, 0.09713710053966887, 0.0341173560367122, 0.027852631675914178, 0.06479092391788928, -0.09461561162265986, -0.09304365867702824, -0.062490158146014524, -0.059735499855053185, 0.06702665338001187, -0.010206017937067987, -0.02074585317703328, 0.04027824559562129, -0.005911427894432169, -0.04965671098318405, 0.10077441277859851, -0.0029532617321197923, 0.10063929815706142, 0.053184259220147884, -0.16265508688136923, -0.19834726699943772, -0.21836107287623252, -0.01320161670049104, 0.1161872502198513, -0.03440759621277326, 0.005091531600712123, 0.0728081650820033, -0.07369249637877741, -0.1487840040523306, -0.21676836324882506, 0.012441125762201466, 0.015134712739611356, -0.08133512551603786, 0.03992235753018068, -0.10039986943961726, 0.002906479338260153, 0.1067428272850891, -0.041338877075102386, -0.06556253419576107, -0.03960818933368687, 0.11964505539352006, 0.12787033670108053, 0.16835626950867963, 0.18276869942669863, -0.012467570299487368, 0.003941814866486257, -0.025138092738528524, -0.1596502727895994, 0.08774870330347137, -0.138403798333853, -0.19248840147194252, -0.19275311655215752, 0.09787979571438601, 0.1500130577672364, 0.062022138872122524, 0.05888096431430602, 0.09321383420565421, 0.13710301220896243, 0.15379833526098488, 0.11601191082126822, 0.025532415435188423, -0.05338847060680826, -0.09356556886703025, -0.05801608859320942, -0.02740323323972784, 0.027851436152655437, 0.009290655784929623, 0.09063934814400978, -0.025679289391838604, -0.003616363682155601, 0.10363908219860017, -0.04712740123174691, -0.021634033967342224, -0.02715372128277788, 0.06492869966381201, 0.12458607820310799, 0.1625322155966318, -0.036718110764877535, 0.06245459233186549, 0.016837447183024663, -0.019970216453936006, 0.0351909950396299, 0.11491708783757862, 0.15878728007399165, 0.10680924851044266, 0.16264402132706304, 0.025000140637848278, -0.006721507755296187, -0.12287492071690032, -0.09138538644844954, -0.19044423255039322, -0.14039639499812567, -0.045711531567113065, -0.12284912451612208, 0.009916237392631125, -0.014661955639249245, 0.12606609070989433, 0.04801296115711187, 0.13837454987596026, -0.07838552901120441, -0.005456050614355719, -0.057504457861526276, 0.16466250701357094, 0.07605937357988433, -0.09200035273852239, -0.049659187767462316, -0.06712226943572402, 0.01822809458781845, -0.1102473357981141, -0.007183308788866747, 0.03825245796679966, 0.08373299198365179, 0.08114517592451141, 0.13857458157331423, 0.15691516268460093, 0.10737206852773432, 0.0812604278820676, -0.10492611620858283, -0.12117719024535038, -0.019898295066800322, -0.2106508788935745, -0.1226477466789612, -0.11917144410031325, 0.09355641910067847, -0.19635408188743017, 0.19647018188778637, 0.0425297122386135, 0.057665323591825676, -0.04720891134270948, -0.01397414205766059, 0.008590502540636667, 0.052466031068144174, 0.05911210186615889, -0.1545659020576174, 0.023954490669690756, -0.01226294984122368, 0.06765786025343118, 0.011931838521855316, -0.12474976789887031, 0.10800134355893407, 0.1406527310664281, 0.19202002792155484, -0.004430042142599943, 0.12433052818088589, -0.10545830006013258, -0.06403189569575962, -0.09299448656183121, -0.13640736569476763, 0.07916106459257842, 0.13849884019463118, 0.069872437867101, 0.05038109355702588, 0.0804938341376854, -0.01567048379279892, 0.16469850204918776, 0.02946740397169803, 0.1250400854768004, 0.019939380353737195, 0.05038517844853813, 0.058141293867849456, -0.22740359941561283, 0.09883715376544598, -0.0004472450366048864, 0.03177250545024902, 0.11426473598017839, 0.045528510121716805, 0.0015586913606006987, -0.1586830650996274, -0.2411359174780449, -0.1303933216755174, -0.031655220542905434, -0.17052156910429023, 0.0023136560121299514, 0.1764700681238854, -0.0611856713120355, 0.14861180861643888, 0.13730056299875937, 0.023345002720378042, -0.05076799121646458, 0.18361720570187945, 0.08691729795009623, 0.14320974135105788, 0.06003282663928988, 0.11277192830841203, 0.05873140588551008, -0.04692071216290224, -0.15198538175377985, -0.09070750042658697, 0.031710613525877, -0.10233769871078095, 0.07438932020059595, 0.20170840466290774, 0.0039077022120049595, 0.10497460301505483, -0.009622093377819402, -0.0607533074194366, -0.03875633977695657, 0.12369932471071095, 0.09011725731074148, 0.20772748092915921, 0.08257348695372048, 0.04582842661632875, 0.04985129732886711, -0.05189382389143648, 0.00035305355829912295, 0.0626106104681108, 0.095443717428395, 0.019365584539824635, 0.14489437333822533, -0.06734572336326378, -0.08797358726047448, 0.0996627520072982, -0.052211222762360426, -0.11472608872178258, -0.07383010141583024, 0.0416455691533063, 0.017100191976552503, 0.12092602588489139, -0.07836663647761699, -0.12125741650150827, 0.15066895316505352, 0.07706375615612782, -0.07401288768523406, 0.060385787058244794, 0.0657696377547737, 0.14497161203224007, 0.050276497785629454, -0.06879485846146867, -0.026305761666402926, -0.006290914786915406, 0.022809212897313358, 0.007918210583423601, -0.04046596792257526, -0.10045220781088421, 0.023682108701660022, 0.021753835308072275, -0.015024788431534982, 0.02037603330158965, 0.04068278392778719, 0.0844760626894912, -0.0682145340038149, -0.0759565548888603, -0.1275466372852675, -0.14005474564052267, -0.17053232039743968, -0.03165315431001095, 0.07060361001049405, 0.11208005774532927, 0.04927978012049414, -0.13685027829544305, 0.022452838282791064, -0.14210920182322728, -0.0047271901226462534, -0.000262706967348991, -0.014637367336580115, -0.05453259256806396, -0.02411275874939147, -0.039798165102568575, -0.23364051611306005, -0.10187216197212164, -0.16714852891650644, -0.09471872482217486, 0.0094560475879114, -0.04348495549983988, 0.014508599980654138, 0.039382229290176686, -0.14208661143079004, 0.0825392378031891, 0.07942045550818132, 0.0038707891711270356, 0.001040515118242011, -0.022592419824365023, 0.0571456976804526, -0.018459284843687935, -0.13075952038453637, -0.065146694899569, 0.12980460893467222, 0.015144768460889175, -0.1500873335174391, -0.031589279179920216, 0.01644839005114724, -0.006624555222461364, -0.054120149685344, -0.05039642390547294, -0.03945314019569892, -0.06309459181285156, -0.02315086516064883, -0.06372191983193709, -0.009753152943592039, 0.11408612922232474, -0.04931621421956905, -0.04253816475643347, -0.12260093066921196, -0.18502367003067635, -0.010414553324600893, -0.03754403922359176, -0.1519538348858644, -0.17800886978515182, 0.1672725004856217, -0.054076543326609376, -0.04413117076692243, 0.021935406755977164, -0.04488181742675982, 0.1397596951404466, 0.05354513676886464, 0.038975405322355, -0.07244155428743944, 0.09051293298290268, 0.07191399637715293, 0.11008769957902506, 0.09401136043399533, -0.08965518717542002, -0.05740291830917114, 0.06284036968299818, 0.0505688309772665, -0.08631967232573094, -0.026638735492210398, -0.0034590708290056435, 0.009227556697863983, 0.08912995993037504, -0.07637441745102622, 0.05781372121043192, 0.01076307332476897, 0.007939055711536361, -0.01566131789151941, 0.18567134154959267, -0.015654232175453017, 0.06020031522488926, 0.10563269151622079, -0.15470490476918497, -0.10149792647078303, -0.07252018822679429, -0.011187591350606211, 0.09922520933672582, 0.08678583837031394, -0.1253413987560584, 0.09793347341514136, 0.08778766209321194, -0.13022336298230386, 0.04205329316073859, -0.026990239384488343, -0.0014243598060512275, 0.09781034045791262, 0.23651413904356192, 0.1873106679505177, -0.07291763970354294, 0.0034559791843543786, -0.17196953515273156, -0.08772953847909229, -0.022135237229911522, -0.18023308390446524, -0.04342534025155298, 0.09356585367979504, 0.03235788244217453, 0.053330887128641036, 0.017157915787634866, -0.17546028219215698, 0.0439340781665519, 0.0073303024637232424, 0.10530636067630297, 0.1829825553793216, 0.29190237548768855, 0.106251205588062, -0.12058563946824973, -0.028300951830859646, -0.24124566632151814, 0.01466107597079679, 0.09917875199854005, -0.04152481656658188, -0.060927635057651655, 0.15525632124503483, 0.029039980107853223, -0.05364146487767654, -0.007451403048589097, -0.1725848901933363, -0.01798562361288798, 0.00048253068964022525, -0.0026267219474928, -0.017736476025454487, 0.08456565097089913, 0.044467204396633625, 0.048994297185249246, -0.05018648498930299, -0.17183393144005404, -0.033159434183782456, -0.10451049211677632, -0.0924518522147547, -0.048975751984058534, 0.10153457707168115, 0.0869635180482099, -0.04682431480402819, 0.07151221912739927, -0.1456677080988525, 0.12791984137993806, 0.07992732524985359, -0.08054319055671577, -0.13153088811275865, 0.1632240328149294, 0.08739370446167588, -0.07059959766012502, -0.03632721025129326, -0.1159177372120327, -0.019151300951932192, -0.09299468834053991, -0.11554710348613415, -0.10481564031238351, 0.04752662923601185, 0.04346142565232514, 0.1083164556468607, 0.047255522456363865, 0.09439628241793287, 0.15201109749286507, -0.05877718634763219, -0.014699674675485469, -0.09579352783683613, 0.03255453162998482, 0.06618436581210288, -0.0019364461308829352, 0.05748666560967456, 0.08654065711545401, -0.1306376806770981, 0.07097289185960717, 0.004785765121336228, 0.11125557300653084, 0.03262415476934689, -0.0190805229329567, 0.09754105836550392, 0.13249595946564685, 0.11943765380720238, 0.07436079354540075, -0.03663170402372935, 0.10133173476920418, -0.03281730677243096, -0.031814325082838026, 0.06710938313465684, 0.005372780550589301, 0.024000205459123288, 0.08127951951573233, -0.0681864244282014, 0.11440750525600592, -0.037329062271659975, -0.08264531021568473, -0.05491937725051574, -0.023731199383148303, -0.10255069058004641, 0.002826339446547965, 0.022170175153977748, -0.03135165557445622, -0.05577819441880863, 0.14086836068705594, 0.05680061945603632, 0.06039779081545019, -0.12218302107165084, -0.18275282123718353, -0.0660471497199846, -0.08025022488477443, -0.02551478823775187, -0.11178791066447911, 0.10365070934603186, 0.05607886137641982, 0.03257234496716542, -0.162451669604248, -0.03295211520741218, -0.022096248515251705, 0.022432317214662854, 0.06327901772770662, -0.10275303653305237, 0.09975557921577533, -0.0032014683906150332, 0.10586095416079859, -0.017439894213757082, -0.16056611664833334, 0.019498389658406966, -0.040095697299659346, -0.0012144400205940605, -0.21471090013077943, -0.005366835575495743, 0.05098283540416406, -0.03649905045832835, -0.07027554348544665, -0.12642228942843556, -0.008994686565013867, -0.0074007135363387605, 0.022150809244849273, -0.03497293725313452, 0.0423497982289373, 0.01845061187870562, 0.0843881537978371, -0.16655778213154263, -0.023935372378392848, 0.03908273064826029, -0.0759033488018636, 0.0016130485359266205, -0.06685004837895107, -0.022403630552984305, 0.028782682845020523, 0.062287492389202025, -0.08845685551941516, -0.013880070885541997, 0.02396174746389543, -0.15482037338749569, -0.0778574220444638, -0.19481680208999166, -0.04879278182619789, -0.1618753173547188, -0.08056921046557086, -0.06727053755483639, 0.03790885679754114, 0.005470056524562352, -0.16388178737419698, -0.04107508093221221, -0.18746277542385356, -0.061124891807093414, -0.03591379394013141, -0.0061529950648178625, 0.04394185768942356, -0.04122121587554257, 0.06424658301693954, 0.0359379439927575, -0.04132309686403714, 0.0636278378302673, -0.040897594505240525, -0.08069226218185775, 0.09542765444918254, 0.038025166330974955, 0.042716941374039294, 0.01327711560522702, -0.051448598744045546, -0.09270507843180473, -0.03609210003776014, 0.1564765314169345, 0.1010105405222522, 0.08444603171186689, 0.11582266684644409, -0.04629083861622829, -0.16682837489315094, -0.12427472265336796, -0.17657794745087954, -0.14748135039299326, -0.00399140977922966, -0.08359675732741757, -0.003418728034549302, -0.028023054098205852, -0.06836260529873794, -0.10537187014513726, -0.0558506660146803, -0.17092872949589324, -0.13726142571320138, 0.0627001596657051, -0.07993761607705832, -0.0493931317744718, -0.026284590240703978, 0.03246179360933908, 0.021618433032518692, -0.13894491180656401, -0.09371875774466287, -0.021621662682144716, 0.043202480023712714, 0.13193000709844888, 0.06977668809684645, -0.028102495733154965, -0.06308409752303488, 0.020845199468570906, -0.08846058020579335, 0.11017550046827329, 0.1590527912849888, -0.1603216821710203, 0.033184586509640346, 0.04086558509286452, -0.2655283866969437, 0.12745517176083757, 0.017418568236153495, -0.16225228416399645, -0.2222159090495811, -0.13985245796892468, -0.10939219532233181, 0.06253737316618665, 0.0195775179606843, -0.030831526054921718, 0.043122945568937913, -0.00039622381269162864, -0.08737436560585336, -0.0023101567968422006, 0.13765442833883126, -0.1915608452085271, -0.1048347464560537, -0.09248567796351895, -0.16477285072879222, -0.07918719935084341, 0.04279670547141676, -0.07524171010151158, 0.06597921797458536, 0.08586535502442945, -0.07130621574093746, -0.14134790515932041, -0.22722547723864023, 0.009756772882942983, 0.010288475787841237, 0.08285639035243904, 0.015867608079917196, 0.06687105652646326, -0.1020038971571356, -0.1387404842266773, -0.13624247801470485, 0.0247864051642229, -0.020382844264802424, -0.0777290518907588, -0.1298238346403766, -0.18913967545052932, 0.10585884795567943, -0.02967901661027675, -0.00014158879052580123, -0.15369457491498817, -0.13988002430919194, 0.011296752490505955, 0.0263901906725536, -0.05905054833153804, -0.10941684985912459, 0.08715836907128123, 0.025258925785847736, -0.1447466686156218, -0.03474196300273532, 0.17665791817443252, -0.033623722945908936, 0.0153113854768281, 0.044207918321217, 0.023769289292304478, 0.002016232256949909, -0.06066192752866351, -0.08573490015015647, -0.05838513947639965, 0.04038282136224322, 0.01905178555916872, -0.04405363913181816, -0.022621454262189856, 0.1174027155663113, 0.13429769470215033, 0.17874585851543526, 0.06819082384168644, -0.1334207160631323, -0.051680212638161235, -0.10639827749119288, 0.05396349354575662, 0.035148332355983136, -0.07948520568653432, 0.17561009313578635, -0.033082456487574095, -0.117088614290134, -0.000712525748696028, 0.13055463469591835, -0.0022386426042134023, -0.011343998510853945, -0.001302490439067116, -0.054209850464644896, 0.21550236016631655, 0.009472118470633603, 0.006645772545874889, 0.0815799839413886, -0.0040348489464678925, -0.07365228374328425, -0.10086768121835274, 0.021740748405054425, 0.0939808088471823, 0.16121172825412666, 0.01615978565091697, 0.1066325772998045, -0.10195120816837105, 0.05209057714562475, -0.053833170222692656, -0.04403402348396755, -0.03750836026222279, 0.04059257733557802, 0.04275800528174264, 0.014467885435708323, 0.04306228367240481, -0.09574395108128891, 0.16997262686480272, 0.02054403869907599, -0.11029336388394394, -0.03877272841403431, -0.03741554162529449, 0.27424804657704466, -0.09122765582719043, 0.06326428832559942, -0.08249767593645715, 0.059965472578853735, -0.18040575306356527, -0.018773303967122845, 0.004451484176770841, -0.07340024580319307, -0.09379471075357629, -0.11377590565036565, -0.05658095872414399, -0.13780494095939685, 0.038960853891522346, 0.021090562300871266, -0.10931149871256968, -0.0033506895126774417, 0.02047359739300582, -0.0075142718414116265, -0.04221684188263153, 0.17186331268428875, 0.04285459091460799, 0.14783211341281724, -0.057543643698980136, 0.09002953335421443, 0.10880399606937509, -0.1285909110537352, -0.07760286572517947, -0.12776959686102884, 0.055492511575650924, -0.03499395718554997, 0.08613594278109175, 0.1871368637912088, -0.13174968368178613, 0.04429958540230969, -0.100512262704023, -0.003989699436891586, -0.10855227174028055, 0.03140449099584537, -0.017977050761422184, -0.00832578207129861, -0.11375440126106628, 0.0007321236945616806, -0.023107423140987203, -0.14321347911103266, -0.0075384903335056624, -0.1651152090490163, 0.012211180570129293, -0.09051231149414096, -0.0627468559752388, 0.005028759211792962, -0.044300303265801214, 0.1438988687599653, -0.10850644242355453, -0.07363633235986101, -0.16622463062364015, 0.15018985112611125, 0.07810404877141772, 0.13477992076952247, 0.06657304107911963, 0.234959793341278, 0.12181223039314346, -0.033662788197335466, 0.025305675026451264, 0.08055446243861616, 0.12175223921810939, 0.015171699068294808, 0.095101851139382, 0.09732799018577254, 0.05019758518674293, 0.0991441215293795, -0.010536229549016006, -0.1549418788031166, -0.2340813753320065, 0.0038845517296715805, -0.0036114187098924807, 0.016140015213758768, 0.10754317496685246, 0.1108781189845164, 0.16512330440304407, -0.04803277229371532, 0.1022734465503769, -0.069135288000379, -0.0627656940408036, -0.1350153012974195, 0.04486041354175046, 0.0815627620828916, 0.18811336226452327, 0.050568983863415906, -0.011724656689160616, -0.08635560340555558, 0.1841955490252385, -0.03685677655787659, -0.06824845598223984, 0.1019411268460704, 0.09081151664153102, -0.015955954429070024, 0.04166942136201002, -0.040014170196981794, -0.22434369759046396, 0.08650706586391207, -0.034259496609272695, -0.07395138242966376, 0.11466566127785488, -0.032833411438006305, 0.13968579774234893, 0.03392034179371914, -0.1448634838666798, -0.03793815383512977, 0.06741134997273905, -0.06837641830131126, -0.23358950816511825, -0.007757469745131534, 0.0038724958628258855, -0.009601958649058554, 0.08878863222186102, -0.04542897497709931, -0.07330889100583252, 0.08440615140126771, -0.005941266417511461, -0.05532987345582893, 0.039223709869133774, -0.12129433515146798, -0.06550142977343257, 0.02088579590058818, -0.030526220126978948, 0.04191095132231017, 0.16814628781706004, 0.11481784539246134, 0.039564521115621296, 0.20522678968524818, -0.07842838776910656, -0.10717816840066344, 0.008632212882995462, -0.15503099082169908, 0.005392872704515663, -0.024604109279331335, -0.10012117643795072, -0.15242343558165466, 0.06485859584719254, -0.06264252178609273, 0.020386693725907488, 0.1218691323636526, -0.08295444018783334, 0.09165523207725158, 0.053675997497417895, 0.06826589712620534, -0.03928977776630459, 0.028736608901243892, -0.026295298846396996, -0.1678031964688196, 0.031405843261668155, -0.1214052881349733, 0.027763421357485645, 0.009132352178175838, -0.08542271650412425, -0.07754172228354402, 0.12574340149552538, 0.003877637700960251, 0.05119918720781903, 0.1629507511406727, -0.10438950972176225, 0.04287499865121425, -0.0138903464120545, 0.031841136025355994, 0.07121402982168187, 0.1725203150394882, 0.05033126775989302, 0.041170962337330363, 0.08657726830309712, -0.07883793265971645, 0.0681836194372249, 0.010633938924569292, -0.0017735172116584103, 0.10446326049629788, 0.11951328790656511, -0.09620742968195022, -0.0847061867615959, 0.050536570305307525, -0.15590494837315508, 0.059998123346277306, -0.15849503594342276, -0.009695193941203096, -0.08927293983690136, 0.12845889303391833, -0.0025319286592379985, 0.00570881598432465, 0.024458282666209332, -0.18933861981863032, 0.0428998638488039, -0.02521198982817355, -0.03968761641479743, -0.04709938370827877, 0.1138421558374515, -0.06104088977367294, -0.03199118508933074, -0.06014661061028155, -0.04627061266426293, 0.24192321688878202, 0.08133655069908177, 0.10308894799171842, 0.06938881938521489, 0.24215688295503482, 0.021263267770742847, -0.06993706023872417, -0.032431916982076904, -0.21264435737869317, 0.10328401856578785, 0.007850263940370382, -0.029748061106939287, -0.06503717477684715, 0.018807993299860472, 0.028718187832080154, 0.060444001134567334, 0.05299771082971371, -0.025454046357082875, 0.11124824897539934, -0.03370759517766418, -0.0700006544765182, 0.02864628633339241, 0.18323981862279123, -0.0395358930141509, -0.0038247661718420855, 0.005047502903268048, -0.15522061490836458, -0.05259232846764948, -0.06256568227310601, -0.22543707881836922, -0.06195568628629973, 0.035058852965170195, 0.03337614007568092, -0.0242892532369686, 0.014613150463245435, -0.12232756159485403, 0.1827807382637029, 0.0913036561384643, -0.04030701892544011, -0.12340906830758162, 0.06656553862501156, 0.1191051308198915, 0.01623857942420193, -0.1715862658969898, -0.14621933133490783, 0.01619247121304623, -0.04021142406941254, -0.055250421309481074, -0.1414545072702803, 0.09180905672926984, 0.020196266115703056, 0.07318763415222918, 0.06900380104825946, -0.039045484064482425, 0.09265661141661755, 0.02153632042390013, -0.09875389647147396, 0.04600911788292163, 0.061798744304830656, -0.024506387226528648, -0.08763463630658128, -0.07156089876215586, -0.14233453526424086, 0.004448917334490927, 0.005106951106724312, -0.06935579410165311, -0.04830449826514147, 0.07160992672139803, -0.07979149195015295, 0.06636690796221087, 0.05947923898102356, 0.05902683467258214, 0.0912995339707775, -0.015065335797664114, 0.0204961465801616, -0.19611696886492258, -0.09825506744592055, -0.002152627816457457, -0.11015781988361359, 0.07380471372674394, 0.04809391034793038, 0.11221479797699968, 0.11131347088008761, -0.031391109375808565, -0.13232293110952845, -0.12548481039306122, -0.1690415499608859, 0.08584670683269119, 0.11884307414927459, -0.10064514944455319, -0.02592657710583776, -0.0199901357135195, -0.042703058969207064, -0.07893540656610981, -0.025985226063694786, -0.022361251241586923, -0.06691143729201526, 0.009922698599207944, -0.00757495315315067, -0.04336818563812041, 0.021419522921766895, -0.0976525295713557, -0.04281590738393411, -0.18042037778201184, -0.013671397373007129, -0.24386545033599355, -0.05797658713686732, 0.013952306059409858, 0.12049466724640025, -0.032759680161586945, 0.06814581172787135, 0.015669853885909017, 0.0942606644555182, -0.2056193159815852, -0.2678867547553669, -0.019158932431588803, 0.026451196970446254, -0.11112874180716649, -0.14376469986205445, 0.03144083586799977, -0.026122565249084646, -0.030863355674915834, -0.26490586567652075, -0.00598934563437775, 0.008460827270668764, -0.07035427963065581, 0.053838395519667834, -0.08990902089328368, 0.07068955569736314, 0.029018952590627027, 0.0032368885839886338, -0.01630386679982402, -0.1050629262534005, 9.309562915783614e-05, -0.008019980415834026, -0.09965000357438324, -0.0888813668954924, 0.13821413949520736, -0.07011285600647907, -0.08177892586238443, -0.006766442001889148, -0.1117270590962061, 0.08320547700963479, 0.01601266022582233, 0.03821926907847143, -0.14002700388114464, 0.04855577041756891, -0.01535413194580388, 0.06761663246848074, -0.09700829724411282, -0.011134614731190226, 0.025064898856341562, -0.06010578498633465, -0.05516315586347545, -0.23280405740252164, 0.11286389967282207, -0.014202884834026982, 0.0742688472379561, 0.01924258322064743, -0.09205938370332366, -0.016813598131105886, 0.04485240122558057, -0.11852831611367404, -0.06797946012753178, 0.054382013538324496, -0.032732609163820495, 0.06568556336173115, -0.07250201677666776, -0.07243645721332695, 0.035342888134177, -0.04401345960260298, -0.14201334578433306, -0.037011429018507944, 0.06314068000608525, -0.09652993124468161, 0.015253190264054202, -0.0550087527459876, 0.0036847168586165756, 0.04180238831889443, 0.030010768414309927, -0.07957365409942406, -0.23091346372747198, 0.09439634225240467, -0.11070052071048489, -0.012266790254789257, 0.10283545137183003, 0.15436400085777277, 0.12863050420761304, 0.013587034271723003, -0.02592699172351827, -0.13534262403055677, 0.18227715649107093, 0.01864139172816543, 0.08685960779612117, 0.10643895183603051, -0.07688796351888189, 0.05862488621392847, -0.021977130152949508, -0.11699686670389976, -0.05630666706476229, -0.002250614155978322, -0.0513409198997529, -0.0428994324104107, 0.013749297494716546, 0.16846619643382651, -0.019752346821909947, 0.04262624093248027, -0.09887822411572905, -0.06503133891128667, -0.08132284296627895, 0.000600754929840663, 0.014687021076465554, 0.19509707443334956, 0.11902638543387904, 0.008583459292395021, -0.08976606100256501, 0.0049606941132242545, -0.09146367953854392, -0.020834379394374082, -0.07925485029353556, 0.014105476113906714, 0.07483254570710675, -0.09180063492921746, 0.015938208517876865, -0.06662232129618795, 0.25407224587187216, 0.17697712828188022, -0.009655862761999567, -0.048647298425032, 0.017471996472827957, -0.054793983849741906, 0.045347812726990656, -0.03889082026674447, 0.1450028598852498, 0.055940561034316535, -0.08574598929229613, -0.10158253794237995, -0.08049856707148717, -0.025555382953590996, -0.045959360835574004, -0.100648813309597, 0.086245303313343, 0.0998118992141446, 0.19523409042914605, 0.1777755499567245, -0.09796175017449865, -0.17178587422838895, -0.12401090372896921, -0.09486773634952406, -0.07617409900599724, -0.1518992924840302, -0.08269411883153992, 0.10420630946353034, 0.03384393421184663, 0.03780739589952012, 0.07494309711218762, 0.10376759416634769, -0.026381042499209664, 0.013290163952442865, 0.036487757884225175, -0.09427287841622739, -0.028384726635889167, 0.01748183578078516, -0.07225486350284334, 0.0364825443502142, 0.14373379726202795, -0.016833962652040534, -0.16829631560811287, -0.20272565494253694, -0.113860181808001, 0.042901514666964395, 0.17142373633128863, -0.00397536757771638, -0.053388837514129976, 0.02851230250445269, -0.1457510034087162, 0.06291722590030002, -0.04727113595794146, 0.013956244224109066, -0.16277692905904484, 0.04904085228674878, -0.20039733361048961, -0.023661784680763027, 0.0028163539736088456, -0.08645140924829364, 0.0249823485152093, 0.1004261700113873, -0.07940668402311961, 0.005035184377642277, -0.20543194567825693, -0.0445786057292463, -0.032140145500956785, 0.10901268885589582, -0.07478496632890767, 0.024403457818117452, 0.050100958329656275, -0.07441271272910036, 0.15185599165842262, -0.06872764125483645, 0.16298307876878948, 0.09108710746374514, 0.011103313089649281, -0.024961385678388667, 0.026889355458105776, 0.05551577384731267, 0.017923612738936126, -0.024182541273881055, -0.08463873596560464, -0.0957312981624035, -0.07164727859802524, -0.024759771400929664, -0.11883070405010396, 0.042930074755135744, 0.1799820117336838, 0.009402728669148236, 0.06965741618085254, -0.016085215931566126, 0.10602512096162907, -0.11280820840336024, -0.05667517076869702, 0.022335631422092564, -0.07812151899665391, -0.0017288516172432253, 0.04713137695422929, 0.07535660553588483, -0.05284638890366729, 0.18453559975093858, 0.04832980917412817, 0.12785330152002206, -0.08639988108413385, 0.037753641726723845, 0.04698299906784402, -0.12227865851342008, -0.28565686499170995, -0.10715205576512515, 0.14144672758422427, 0.05279615830846089, 0.16544187570568744, 0.002091760633276832, -0.09223650157432613, 0.09337009916002294, 0.060746587284006004, -0.09182730989193952, -0.11454124388498382, 0.12509122057483524, -0.014318959951611823, 0.12570249853631218, -0.07446681491892511, -0.17596056053349995, -0.021346507310622466, -0.11434993334778418, -0.27868496920165003, -0.06103234987558839, 0.15867865475562332, 0.10774118114063358, 0.1129697930690322, -0.10260558696897845, -0.052282058085138146, 0.13138137242022985, -0.018477052096873572, -0.018441748041517218, -0.10562131199732931, 0.020323519167536476, 0.03152702101233437, 0.040465534152027305, -0.14917400877769676, 0.1684698596314918, 0.11374543638135921, 0.07352051514343903, 0.09283801691618741, -0.02257180984854567, 0.04265634657015274, -0.03390345579764753, 0.06788103212163854, 0.04453290413822023, -0.17892569702710437, 0.17615691252649826, -0.022517519385305967, -0.07027018055664205, -0.2084857247255887, 0.14461736241984988, 0.08497741359798391, 0.043340772654075106, -0.21486182861852315, -0.13497211686509705, 0.11133815392587657, -0.016048324580938397, -0.17708331416743578, -0.13827141292670714, -0.017702624989058367, -0.06530226825715023, 0.0551906902420857, -0.07307063626584694, 0.1389670001464883, -0.0003397922618906448, -0.056301965052446404, -0.040423439792572444, 0.07311410359340824, 0.03613136088091568, -0.07773313894758499, 0.12771578175540022, 0.25532060129050843, 0.033676843970969705, -0.015616846429926596, -0.18764124812451127, 0.010074759916686302, 0.1016211150074704, 0.09523517720707855, 0.034404072677344466, 0.10593791576019086, 0.04510957552860255, -0.08388771621517657, 0.08298245280483584, -0.1849789176862053, -0.1832936972269843, -0.0147701358622448, -0.11647875232611368, -0.13195005170140478, 0.10916965174055132, 0.006301341723416198, -0.03735837526870642, -0.010775125898241486, -0.1410042094590915, -0.18358090494414736, -0.07927533300044563, -0.11094750631875461, -0.04428126224197137, 0.07194897202197997, 0.0342698050535265, -0.03691091475539863, 0.04873640336393638, -0.04106462014440643, 0.06600260628163539, 0.031292738446659085, 0.03753107257299566, -0.11937992148961281, 0.13141582569114876, -0.08867652627434172, 0.01178725813821635, 0.07511032734746498, 0.01159794632760717, 0.02536242701881323, -0.015449356399249443, -0.038758147767473834, -0.07901336119314865, 0.09203817377691265, -0.03159604803924338, -0.04461658142916241, 0.11857749785342395, -0.06399505888433198, -0.17258618311273793, -0.08653485933142104, 0.03395764596950093, -0.12835518435693447, 0.02792680034516779, -0.0060571317525091985, -0.11452351520503048, 0.08115431444434548, -0.08037765953713571, 0.04890486944071912, 0.02674901414663333, -0.02762215506138164, -0.14469953263517374, 0.04131008134086746, -0.060858810877606695, -0.021969357588622982, -0.009958143636595454, -0.0744785727812944, 0.05727155048360436, -0.007784855566990473, 0.014108405498374565, -0.047444845314257, 0.04501068861033679, 0.05210991285732028, -0.10607678978714337, 0.0525429385488914, -0.16312111968745796, -0.01452669470781131, -0.009693087477029311, -0.03045364240609036, -0.11388838118651089, -0.013119428262009628, -0.009606186622513987, -0.09872056374840282, -0.04253549273673516, -0.08961006455052892, 0.09447512821650121, 0.08411691384827469, -0.023727930321768752, 0.02654543616664918, 0.149612838308579, -0.0721369356659687, -0.23242946606030637, -0.066196278401935, -0.20114080746911733, -0.011583858925355675, 0.09399988928627667, -0.13689458266559612, -0.06300368153436793, -0.038506931963551795, -0.08116119275708004, 0.008771898801198752, 0.1773440099049137, -0.055651613869469665, 0.0706702644992912, 0.008277174441438136, -0.027812906180941947, -0.12260746595034883, 0.08697225253589862, 0.10422926882341098, 0.0749341664977354, 0.12509417468146672, -0.17324038067984093, 0.06791507827225252, -0.07842473629633424, -0.15927171851107627, -0.16777792234516548, 0.1674011700056127, 0.031045855962309146, -0.0008684784092090605, 0.03216998318152421, -0.10166355671286789, 0.006288548861650065, -0.09092980502174558, -0.13580301094001254, 0.014130561985828871, 0.017401106158907154, -0.04962411552674978, 0.01354769342072584, 0.04106565216079134, -0.19193316834202215, -0.052046583237292894, -0.08503412850586785, -0.10511363259242908, 0.055004775835467826, 0.07867657642594206, 0.007913129441177575, 0.05092156476132855, 0.13304598308202362, 0.0115336613290109, 0.048777827107545677, -0.09539626259180896, -0.058758351291422234, -0.04377049163295544, 0.2139394593232665, 0.13989309046502793, 0.009704472781735045, 0.01960313699870341, -0.13891647834170837, 0.015127733175260605, -0.1081784437435503, -0.1779620993448063, -0.06155860353297238, 0.11920625370102655, 0.08192324205380329, -0.046538596196917775, -0.030381396519071138, -0.1252895212942517, -0.03028706584154685, -0.11533966814198209, -0.058706778173370736, 0.11469548371866105, 0.12273118764531656, 0.0797551799125513, -0.17090141912358678, -0.09734523436249022, -0.142081065601567, -0.004667616600547287, -0.19368414968929132, -0.1474397143233015, -0.0723542096153711, 0.08667690557237161, 0.005654004695596234, -0.012182443859243317, 0.00885617120969094, -0.09213711945049097, 0.14095238635023763, 0.16524515251895375, -0.10311211572341768, -0.05178920884312411, 0.09811911119000592, -0.053867804809860496, -0.06851780512811727, -0.043979416794224596, -0.14951682649607076, 0.05416022362782044, -0.0909781097573055, 0.09197413221756029, 0.061797964669662406, 0.0381654340887918, -0.16777485832341432, -0.06980095949573935, -0.03393884719681852, -0.12430274147113854, 0.0694322445518921, 0.02093397649326556, -0.06688562483487683, -0.20603413762006764, 0.029915188911508003, -0.06444572894493884, -0.11314860677069348, 0.039376265661553916, -0.14982036504326823, 0.035654607098626674, -0.061878265885473155, -0.08573253656547397, -0.18092004301054246, 0.03339840419729411, -0.06456225107073646, -0.008322753673190278, 0.03695288248350448, -0.2127799848532428, 0.04812278497065744, -0.11799653053198415, 0.07291217532094496, -0.006564823842872214, 0.15395829098153008, 0.0016234677745724892, -0.09447268293751211, 0.03921977779811334, 0.04068837989987873, 0.023769634580386802, -0.06649920092460536, 0.034775005092665796, 0.03460714194183278, -0.006619180517270429, -0.005127973620030845, 0.06880646314723234, 0.13437866365826892, -0.22207669056135307, 0.03674166667623804, -0.24849858199445202, -0.030540959961424342, -0.14583131162199411, 0.15262331907632093, 0.007039868904549056, -0.07707889433673745, 0.04576188046442489, -0.037246869785348635, -0.09559613077094825, -0.09185519624710312, -0.03131659882268347, -0.023901785852960506, 0.06580697653757628, -0.028575154675587477, -0.1148350192878874, 0.10237476929097646, 0.05280208269138075, 0.12820818148260346, -0.08164342855293315, 0.13324072100655274, 0.02376404489548319, 0.10349401206645167, 0.019137505241125525, -0.0669431868493966, 0.0032966312167052184, 0.08090524534465202, 0.009984168928633309, -0.04755522022441689, 0.14716853161755458, -0.10944179542074406, 0.022962040810570787, 0.0036216869681206555, 0.052298374121560735, -0.03147172356972566, 0.0601008117411666, 0.10745925373482312, -0.2426538141713931, 0.016626079399503953, -0.10388506687444303, -0.057256281397285114, -0.0012190776222016269, 0.05938156863906704, 0.03525017028595318, 0.12466359171768869, 0.03583825441525608, -0.12482002994070371, -0.03135956075566854, -0.13733953593703968, -0.09974199484206618, 0.03262364938785134, -0.053446742759907136, -0.016427582896833853, 0.10007870387594375, 0.015277578790524823, -0.009979012416144689, -0.031357235973550376, -0.10736243000973446, 0.05077787576286592, 0.01605001945198101, -0.11125940089482257, 0.023607599523412647, 0.018655495998599045, 0.03834425666826649, 0.06338597554166162, -0.010996137682348844, -0.03965829266424369, 0.04233742224880534, -0.11753827435553628, 0.08821100495918009, 0.08915364634073615, 0.09414022027568218, 0.017532707462859728, -0.06411730311238326, -0.13928024809246545, -0.14272423423398878, 0.015343145887101652, 0.04838826049614891, -0.03281570947310727, 0.11638837606501479, -0.05234522292933148, -7.344455851585052e-06, -0.08647442239252044, -0.09170897542365956, -0.12328354923678389, 0.12199585306825056, -0.034755973871452676, -0.07166534811532076, 0.06749256233360337, -0.040928994406127656, 0.0877899190113871, 0.1400979379486175, -0.024567191299089203, -0.03524826658095945, 0.026018235813308324, 0.03010334328587443, 0.14893879778550578, 0.061595097161992185, 0.06702060981774693, -0.006631499361497567, 0.03429821088125801, -0.03286895813313999, 0.04462852395384405, 0.11153128804131766, 0.1545052230137067, 0.04799184135677948, 0.1195840633084525, -0.2534503282081711, -0.034663910130906264, -0.05068241731246831, -0.12146489516449134, -0.06105668708330869, 0.066904034088485, 0.02400897164779601, 0.03405464826138363, 0.13764006873338824, -0.08115212960278287, -0.03442554328170868, -0.11966940468958588, -0.0510700040034027, -0.08947887671826145, 0.12493593500296797, 0.0864323869091576, -0.008202410524086774, 0.032743801348579, 0.07935180744938364, 0.18929015487293716, -0.08105665310929089, 0.008832462409609583, -0.0071420627576495475, 0.06294723741903499, 0.021900156912876133, -0.05998573265289614, 0.1441914149356297, 0.16683808000860062, 0.1985158234516861, 0.13938597738437136, -0.019407047232706892, -0.12507984195594082, -0.09153282577644853, -0.11366273304154251, 0.06168807755984106, 0.11132785613542759, -0.017157287146258044, 0.06811472266669813, -0.15021163601886056, 0.05994720183563114, -0.0013128164423560802, 0.16386000954047547, 0.007497408287970509, -0.11977123593683904, 0.058754073486778885, 0.0066971820878477546, 0.12552019796103497, 0.1507766141506037, -0.02017867223237449, -0.07088036331699624, 0.0567805735816933, -0.1335921438346013, -0.07838439043010978, -0.14341686325331424, -0.10583688992714443, 0.06567461827448012, 0.05181932504189337, 0.039538812643743815, 0.0532039208156546, 0.12185756839957382, -0.042821209970060586, 0.24979592001111525, 0.07115969733394835, -0.06158262269086159, -0.054377538094207, 0.049419618788385834, -0.14247774429934637, -0.0446476785259478, -0.010257450151897654, 0.05519690237911379, 0.025462594388849423, -0.20591881883332427, -0.25908216212760865, -0.11852132749083552, 0.08751196896651821, -0.07994216054035239, -0.009265842843692532, 0.03428722274441768, 0.13381256712583747, 0.1724880015545735, 0.03595443072994662, -0.1495440335546039, -0.049790648579729264, 0.06355168569373573, -0.0811574472246697, -0.2486925582194416, -0.11056179617525455, 0.08681034880675245, -0.061677524195974935, 0.09267973692623097, -0.10104321946151706, -0.07248583725476623, -0.17167538118021802, -0.04347796364340795, -0.013346367291860175, 0.09234083774020492, -0.11832693318216753, -0.005970839409696706, 0.11951370715669356, 0.21682962164383304, 0.1428960772143327, -0.10650224025225342, 0.06974072420468844, -0.058937319590142166, 0.10775578612714072, 0.009284922760458888, 0.08368653951486052, 0.07238907453763725, -0.10582858414952544, -0.08779490587527705, -0.08181572209984701, -0.11585900233211671, -0.15230283239337195, -0.10791544561863448, -0.06829454359487933, -0.0017702179386275953, -0.00021132892391457657, 0.06652142018846403, 0.051286288805557786, -0.03765230474806838, -0.04689369532993231, -0.029772389802730104, 0.04010152193464835, -0.02477310360709762, 0.00941010581119615, 0.14547533173776767, 0.18553309759932932, 0.051102699628946736, -0.22299633705617358, 0.14237867691855197, 0.11804892257630244, 0.20672803375698545, 0.026710570149771386, 0.09260023221412028, 0.16043041541286315, -0.018145493024532625, -0.1160229143080243, -0.06519079580711656, 0.2184369339107047, 0.0416596926667185, 0.06547679126121145, 0.17179415924263106, -0.12372065942614605, 0.0875122907172483, -0.10733076588862844, -0.07685603345983523, -0.038734009336778834, 0.060049529269426534, -0.0073178513098820005, 0.015927062333382022, -0.13331067536552194, -0.008045626691098116, -0.01427320581591156, -0.27766383673660394, -0.3116049073779164, 0.1497425926599614, -0.031171776597113933, -0.02452142084700853, -0.0618628023898114, 0.012714485229423702, -0.07458528611512245, 0.11403513368290147, 0.005079779869918807, -0.034774439425692194, -0.09056544126137303, 0.11042780157171124, -0.013174446731932892, -0.10124570726258825, -0.0670183677962766, 0.021875086149609098, 0.13153045315603926, -0.0879746056039151, -0.18228975311809817, -0.02510620800412903, 0.05033640742027495, -0.02545032099809375, 0.04869824984062586, -0.02621036044136143, -0.08046260384696084, 0.08698540001379913, -0.09986066115860605, -0.1153168919638257, 0.0005441626253973372, 0.010132967515671594, -0.01394094301552894, -0.006833017749796504, -0.04989537106265943, -0.09275079401907128, 0.10858153641206215, -0.12224008908725996, -0.0868041780507859, 0.043465666546495876, -0.09922017650283245, 0.03069972078078553, -0.0006894645995952122, -0.02738741055354717, -0.0111462962389857, 0.03934138207461304, -0.23096227232348615, -0.21215130148285488, 0.0005681338138114264, 0.06531458055130382, -0.08872388877209919, -0.005142159865100915, 0.05296923053886265, 0.04848491268231004, 0.04929525476287019, -0.07710178725363928, -0.056424818347182416, -0.01602634208220529, -0.0796474979701186, -0.14190025955373203, -0.06236296063119507, 0.07956622680257039, -0.05795710465836697, 0.08886402336923933, -0.0764990909793668, 0.005320096479955683, 0.08723704929141413, -0.0854453198201896, -0.14441337806281154, -0.10423281132916098, -0.05595957143527329, 0.03287011397362976, 0.06937568579008953, -0.0049084154015595315, 0.09730201830313653, 0.12524529748862867, 0.02200844983064565, -0.15611372811898586, -0.1175571032609912, -0.08627963065414194, 0.024269680945414224, 0.08009930356017679, -0.05089439222651006, -0.06920044505010145, -0.015868795237984398, 0.1621063627480862, -0.009661212192469744, 0.008806091205284028, 0.061532552478106434, 0.015432635982571875, 0.03043772358964351, -0.16619610823780145, -0.07917327777326177, -0.06369533992294489, 0.17012108396255451, 0.09525982378650072, 0.03827070156285017, 0.014192128304687463, 0.014729879853370417, -0.01479223792657101, -0.1306369270228485, 0.10962641317182506, 0.12148780545618787, 0.17442711230661195, -0.09796849009217554, -0.07796425258342292, -0.06626221634170407, -0.058916633871179604, -0.016962961083855428, -0.11079847371984024, -0.02842052669655768, 0.01804399930796447, -0.04014207366781582, 0.10224799879064073, -0.015494814910366467, -0.07954277277946702, -0.08731416790077218, 0.06300082993964173, -0.02369025290547914, 0.14148306271139316, -0.0409713818565059, 0.10182946983232483, 0.10779427921443642, 0.23331933523600334, 0.02434135852856847, -0.1835142496507931, -0.06041907085647596, -0.11618514342378256, 0.16498335607739392, 0.0697158739415925, -0.11496250351637816, -0.09949539940497264, 0.04383048524413651, -0.03396836179255547, -0.16252475829850607, -0.031921031664305564, -0.18114591059134835, -0.018886740865553052, 0.060408608764564775, 0.0459902953410382, 0.08896858531836967, 0.12901650995187944, -0.048231103402864454, -0.0744246920693278, -0.10366008569101834, -0.24253902741094843, -0.041369769316794064, 0.007009415912256309, -0.04055618036274643, -0.10907411849110153, 0.10538792876534311, -0.08044089826981675, -0.028788528850863398, 0.048690685337080375, -0.12097182591097781, 0.16140499084420637, 0.018547267132762404, -0.011692123023426485, 0.0639435424500904, 0.1455783002947943, 0.021178348427088264, -0.11332638183548667, 0.09392268137045753, -0.03879994876122554, -0.035373783613869045, -0.045849218130503126, -0.006714235042859522, 0.15208324925994127, 0.24751734655399982, 0.026961679118522104, 0.11588889946176659, 0.05618238684866265, -0.05860256643734317, 0.05260998540104124, 0.10082782327888426, 0.002851993761372871, -0.09643796674955742, 0.028741703152806487, -0.033157400537019655, -0.03627390538210312, 0.13659686822709718, 0.0460385292065012, -0.02812393133622216, 0.01807095003047569, -0.09527299086474914, 0.02357943205473497, 0.029814157179318537, 0.04736365955748133, 0.005761166131526472, 0.029338313899650352, 0.0880478949147918, 0.10929897547477813, -0.07248575865325532, 0.03460858292770527, 0.1882560308345016, 0.2220888061140775, 0.09310596456679401, -0.08188504174089521, -0.10756701517475004, -0.027645321390463995, 0.05002831293684473, -0.11511850683922334, 0.060395414003603994, -0.03339487914845831, 0.05683523354272912, -0.02093624997886305, 0.005713617723005638, 0.09039109025103037, 0.0036538968840785866, 0.017053711247001276, -0.045525736880656226, -0.08702537033773171, 0.0018483451691050515, 0.012205260173185944, -0.004639460105081875, -0.058787771195395376, -0.08868868216044054, -0.11317359610732032, -0.09724143151580925, -0.07287405051749732, -0.10806360738851763, -0.004532813966843737, -0.030535905798567374, 0.04470222106894388, -0.1564890584232376, -0.05970759445970287, -0.011884323258474527, 0.0998367992743275, 0.04630426434488447, 0.03803104134188298, -0.030425774893921863, 0.056970716986307936, -0.0028908972958419806, -0.06207768413218856, 0.045251297409988865, 0.07786733137333775, 0.1371007433978244, -0.11442618774964113, -0.23134984859443608, -0.19937861921153688, -0.025926245283003968, 0.026382739345775303, -0.10737643683399396, -0.03250063637463363, -0.04275498290282372, -0.08725914432372342, -0.007203916433827451, -0.1341377699045014, -0.08364515955322152, -0.09589388115211327, -0.031071299407426773, -0.14725460155275163, 0.019655935425846465, -0.044414546174208445, 0.0578757096457737, 0.0011516007414417405, -0.3146268846396052, -0.16539498920409465, 0.008320521149479912, -0.09011514398818758, 0.009057725001088264, 0.09474259106474835, -0.0036182374778756573, 0.1817587516677774, -0.15930444687776374, -0.105454374874402, -0.10562354898977756, 0.09475972586421498, 0.09381343706778833, -0.03443891383512319, 0.034535609687232405, -0.11175252789253416, -0.02041306270309716, -0.008553813653648512, -0.040121582983899666, -0.06980360295214662, 0.015549040637018218, -0.08403494944800989, -0.012592579287359221, -0.05665946309407951, -0.14439111088657486, 0.08820002673386464, -0.0899964897504291, -0.1739406868643885, -0.09896907359735001, 0.03224943137267584, 0.033775025691382785, -0.03852074593855748, -0.11608502830334863, -0.17430385629058448, -0.22443469227826152, -0.0167184356659157, -0.15777563327430327, -0.12929138184771724, 0.00016421906253494804, 0.007606679521752147, 0.009458892645216646, -0.11032018677963006, -0.08302742190064011, 0.07637959811254463, -0.04672265664358273, -0.0032775385228790794, -0.17760732509920593, -0.09848916944458778, -0.03961655695668556, -0.04832115494653754, 0.04702110253576746, 0.08058070858837936, 0.134523328330752, -0.11425839943530358, -0.005090800510328219, -0.10214307698365727, -0.10278466177631124, 0.028466080214605158, -0.029447648881950613, -0.09837131776663662, -0.16754804142164417, -0.11269682399873927, -0.03000354023812002, -0.18334015075140347, -0.26088011205896877, -0.1697675450362838, -0.014272821399411988, -0.03784976522798389, -0.01230149029053708, -0.07505645152418942, 0.00313326586247732, -0.0007375864622133094, -0.17195807880133512, -0.1911403876048915, -0.15402435888860558, -0.06799237098653643, -0.02787731956424171, 0.07035145340138144, -0.02261269391061999, 0.009668867725695932, -0.04799232025405487, -0.11730124841607606, -0.06680798315851474, -0.08299961819213109, -0.03191787843410711, 0.04967528417967866, -0.044739254384134626, -0.046079031828691545, -0.0860466544270294, -0.04974881128918961, -0.07717772545957846, -0.029668738374112297, -0.008693611307737272, 0.07026360026575224, 0.0075246143609455605, -0.03594622346145374, -0.12417992364723099, -0.13113880569748967, -0.01476392227502129, -0.10899545994323712, -0.06054840360722898, -0.18865267924798115, 0.0644969330466494, 0.009005013167542394, -0.25575688446137557, -0.1863520992915056, -0.16632212529582732, -0.05960799342355099, -0.05770735200561707, 0.12785987848621894, -0.06686290869754762, 0.0709547721315281, -0.06363245641518402, -0.017617651756047112, -0.10217865825238907, -0.00196907778163064, -0.059431788999426326, -0.011838183999213778, 0.0360963854165502, 0.013453535914001124, -0.06816390450167435, -0.13696893906626117, 0.021864189632468035, 0.046221753462174595, 0.1219887875658422, -0.041936915445845865, -0.07509803484155997, 0.034270286347113314, 0.094937880920237, -0.08629854347749907, -0.09089070723790929, -0.16688928603749922, -0.1924782083060732, -0.06295255861232686, -0.1498306031624544, -0.0526608828886155, -0.054320778655827025, -0.06875334857601165, -0.054822859171575006, -0.12750541865605036, -0.16280861927562656, -0.20914606573406835, -0.045752961970210615, -0.12497681507123189, -0.1558437145924633, 0.00028211174961369516, -0.07057867111828295, -0.040859381988459176, 0.16196180357029943, 0.08655737337759903, 0.03845580891522075, 0.07468424911331789, 0.01169683520137764, 0.02534660793546085, 0.05159473623749031, 0.142509421988177, 0.06433193553038359, 0.09766268156370127, 0.04110717159862325, 0.0808884112346008, 0.026247606119363283, -0.010722032917007638, -0.07927142312439199, -0.0905648704198146, 0.04358184024997858, -0.037117377082903316, 0.025540586507912147, -0.07803830560433496, -0.06712787291693907, 0.030798757303796664, 0.08080831242986652, -0.11781877389876094, -0.05518140413548005, -0.10701332184694332, 0.05512714309377872, -0.0584267203308694, -0.05156003229976737, 0.06988875085861185, 0.000437910318968145, 0.18211746944434656, -0.14047940966055733, -0.07345116295010323, -0.18259097739378338, -0.09408685337197989};

